digraph Tree {
node [shape=box] ;
0 [label="X[1] <= 0.5\nentropy = 0.966\nsamples = 712\nvalue = [433, 279]"] ;
1 [label="X[0] <= 2.5\nentropy = 0.81\nsamples = 253\nvalue = [63, 190]"] ;
0 -> 1 [labeldistance=2.5, labelangle=45, headlabel="True"] ;
2 [label="entropy = 0.271\nsamples = 129\nvalue = [6, 123]"] ;
1 -> 2 ;
3 [label="X[5] <= 23.35\nentropy = 0.995\nsamples = 124\nvalue = [57, 67]"] ;
1 -> 3 ;
4 [label="X[2] <= 16.5\nentropy = 0.948\nsamples = 101\nvalue = [37, 64]"] ;
3 -> 4 ;
5 [label="X[5] <= 15.373\nentropy = 0.803\nsamples = 49\nvalue = [12, 37]"] ;
4 -> 5 ;
6 [label="X[5] <= 13.935\nentropy = 0.898\nsamples = 35\nvalue = [11, 24]"] ;
5 -> 6 ;
7 [label="X[2] <= 3.0\nentropy = 0.736\nsamples = 29\nvalue = [6, 23]"] ;
6 -> 7 ;
8 [label="X[5] <= 7.965\nentropy = 0.845\nsamples = 22\nvalue = [6, 16]"] ;
7 -> 8 ;
9 [label="X[4] <= 1.0\nentropy = 0.672\nsamples = 17\nvalue = [3, 14]"] ;
8 -> 9 ;
10 [label="X[5] <= 7.681\nentropy = 0.544\nsamples = 16\nvalue = [2, 14]"] ;
9 -> 10 ;
11 [label="X[5] <= 7.429\nentropy = 0.918\nsamples = 3\nvalue = [1, 2]"] ;
10 -> 11 ;
12 [label="entropy = 0.0\nsamples = 2\nvalue = [0, 2]"] ;
11 -> 12 ;
13 [label="entropy = 0.0\nsamples = 1\nvalue = [1, 0]"] ;
11 -> 13 ;
14 [label="entropy = 0.391\nsamples = 13\nvalue = [1, 12]"] ;
10 -> 14 ;
15 [label="entropy = 0.0\nsamples = 1\nvalue = [1, 0]"] ;
9 -> 15 ;
16 [label="X[5] <= 10.798\nentropy = 0.971\nsamples = 5\nvalue = [3, 2]"] ;
8 -> 16 ;
17 [label="entropy = 0.0\nsamples = 3\nvalue = [3, 0]"] ;
16 -> 17 ;
18 [label="entropy = 0.0\nsamples = 2\nvalue = [0, 2]"] ;
16 -> 18 ;
19 [label="entropy = 0.0\nsamples = 7\nvalue = [0, 7]"] ;
7 -> 19 ;
20 [label="X[2] <= 14.75\nentropy = 0.65\nsamples = 6\nvalue = [5, 1]"] ;
6 -> 20 ;
21 [label="entropy = 0.0\nsamples = 5\nvalue = [5, 0]"] ;
20 -> 21 ;
22 [label="entropy = 0.0\nsamples = 1\nvalue = [0, 1]"] ;
20 -> 22 ;
23 [label="entropy = 0.371\nsamples = 14\nvalue = [1, 13]"] ;
5 -> 23 ;
24 [label="X[4] <= 1.5\nentropy = 0.999\nsamples = 52\nvalue = [25, 27]"] ;
4 -> 24 ;
25 [label="X[5] <= 19.125\nentropy = 0.999\nsamples = 46\nvalue = [24, 22]"] ;
24 -> 25 ;
26 [label="X[5] <= 17.6\nentropy = 0.994\nsamples = 44\nvalue = [24, 20]"] ;
25 -> 26 ;
27 [label="X[5] <= 7.7\nentropy = 1.0\nsamples = 41\nvalue = [21, 20]"] ;
26 -> 27 ;
28 [label="X[6] <= 1.0\nentropy = 0.722\nsamples = 5\nvalue = [1, 4]"] ;
27 -> 28 ;
29 [label="entropy = 0.0\nsamples = 4\nvalue = [0, 4]"] ;
28 -> 29 ;
30 [label="entropy = 0.0\nsamples = 1\nvalue = [1, 0]"] ;
28 -> 30 ;
31 [label="X[5] <= 15.675\nentropy = 0.991\nsamples = 36\nvalue = [20, 16]"] ;
27 -> 31 ;
32 [label="X[5] <= 13.438\nentropy = 0.974\nsamples = 32\nvalue = [19, 13]"] ;
31 -> 32 ;
33 [label="X[2] <= 20.0\nentropy = 0.999\nsamples = 27\nvalue = [14, 13]"] ;
32 -> 33 ;
34 [label="entropy = 0.0\nsamples = 3\nvalue = [0, 3]"] ;
33 -> 34 ;
35 [label="X[5] <= 11.496\nentropy = 0.98\nsamples = 24\nvalue = [14, 10]"] ;
33 -> 35 ;
36 [label="X[5] <= 9.706\nentropy = 0.946\nsamples = 22\nvalue = [14, 8]"] ;
35 -> 36 ;
37 [label="X[2] <= 22.5\nentropy = 0.982\nsamples = 19\nvalue = [11, 8]"] ;
36 -> 37 ;
38 [label="X[2] <= 21.5\nentropy = 0.811\nsamples = 4\nvalue = [1, 3]"] ;
37 -> 38 ;
39 [label="entropy = 0.0\nsamples = 1\nvalue = [1, 0]"] ;
38 -> 39 ;
40 [label="entropy = 0.0\nsamples = 3\nvalue = [0, 3]"] ;
38 -> 40 ;
41 [label="X[2] <= 25.5\nentropy = 0.918\nsamples = 15\nvalue = [10, 5]"] ;
37 -> 41 ;
42 [label="entropy = 0.0\nsamples = 4\nvalue = [4, 0]"] ;
41 -> 42 ;
43 [label="X[2] <= 27.5\nentropy = 0.994\nsamples = 11\nvalue = [6, 5]"] ;
41 -> 43 ;
44 [label="entropy = 0.0\nsamples = 3\nvalue = [0, 3]"] ;
43 -> 44 ;
45 [label="X[5] <= 8.673\nentropy = 0.811\nsamples = 8\nvalue = [6, 2]"] ;
43 -> 45 ;
46 [label="entropy = 0.0\nsamples = 5\nvalue = [5, 0]"] ;
45 -> 46 ;
47 [label="X[2] <= 34.0\nentropy = 0.918\nsamples = 3\nvalue = [1, 2]"] ;
45 -> 47 ;
48 [label="entropy = 0.0\nsamples = 1\nvalue = [0, 1]"] ;
47 -> 48 ;
49 [label="X[2] <= 50.0\nentropy = 1.0\nsamples = 2\nvalue = [1, 1]"] ;
47 -> 49 ;
50 [label="entropy = 0.0\nsamples = 1\nvalue = [1, 0]"] ;
49 -> 50 ;
51 [label="entropy = 0.0\nsamples = 1\nvalue = [0, 1]"] ;
49 -> 51 ;
52 [label="entropy = 0.0\nsamples = 3\nvalue = [3, 0]"] ;
36 -> 52 ;
53 [label="entropy = 0.0\nsamples = 2\nvalue = [0, 2]"] ;
35 -> 53 ;
54 [label="entropy = 0.0\nsamples = 5\nvalue = [5, 0]"] ;
32 -> 54 ;
55 [label="X[5] <= 15.975\nentropy = 0.811\nsamples = 4\nvalue = [1, 3]"] ;
31 -> 55 ;
56 [label="entropy = 0.0\nsamples = 2\nvalue = [0, 2]"] ;
55 -> 56 ;
57 [label="X[5] <= 16.75\nentropy = 1.0\nsamples = 2\nvalue = [1, 1]"] ;
55 -> 57 ;
58 [label="entropy = 0.0\nsamples = 1\nvalue = [1, 0]"] ;
57 -> 58 ;
59 [label="entropy = 0.0\nsamples = 1\nvalue = [0, 1]"] ;
57 -> 59 ;
60 [label="entropy = 0.0\nsamples = 3\nvalue = [3, 0]"] ;
26 -> 60 ;
61 [label="entropy = 0.0\nsamples = 2\nvalue = [0, 2]"] ;
25 -> 61 ;
62 [label="X[5] <= 20.167\nentropy = 0.65\nsamples = 6\nvalue = [1, 5]"] ;
24 -> 62 ;
63 [label="entropy = 0.0\nsamples = 5\nvalue = [0, 5]"] ;
62 -> 63 ;
64 [label="entropy = 0.0\nsamples = 1\nvalue = [1, 0]"] ;
62 -> 64 ;
65 [label="X[4] <= 0.5\nentropy = 0.559\nsamples = 23\nvalue = [20, 3]"] ;
3 -> 65 ;
66 [label="entropy = 0.0\nsamples = 1\nvalue = [0, 1]"] ;
65 -> 66 ;
67 [label="entropy = 0.439\nsamples = 22\nvalue = [20, 2]"] ;
65 -> 67 ;
68 [label="X[0] <= 1.5\nentropy = 0.71\nsamples = 459\nvalue = [370, 89]"] ;
0 -> 68 [labeldistance=2.5, labelangle=-45, headlabel="False"] ;
69 [label="X[5] <= 26.144\nentropy = 0.957\nsamples = 103\nvalue = [64, 39]"] ;
68 -> 69 ;
70 [label="entropy = 0.0\nsamples = 10\nvalue = [10, 0]"] ;
69 -> 70 ;
71 [label="X[5] <= 26.469\nentropy = 0.981\nsamples = 93\nvalue = [54, 39]"] ;
69 -> 71 ;
72 [label="entropy = 0.0\nsamples = 4\nvalue = [0, 4]"] ;
71 -> 72 ;
73 [label="X[2] <= 53.0\nentropy = 0.967\nsamples = 89\nvalue = [54, 35]"] ;
71 -> 73 ;
74 [label="X[5] <= 30.75\nentropy = 0.992\nsamples = 74\nvalue = [41, 33]"] ;
73 -> 74 ;
75 [label="X[5] <= 29.85\nentropy = 0.9\nsamples = 19\nvalue = [6, 13]"] ;
74 -> 75 ;
76 [label="X[5] <= 27.135\nentropy = 0.996\nsamples = 13\nvalue = [6, 7]"] ;
75 -> 76 ;
77 [label="X[2] <= 46.5\nentropy = 0.811\nsamples = 8\nvalue = [2, 6]"] ;
76 -> 77 ;
78 [label="X[6] <= 0.5\nentropy = 0.918\nsamples = 6\nvalue = [2, 4]"] ;
77 -> 78 ;
79 [label="X[2] <= 14.0\nentropy = 0.971\nsamples = 5\nvalue = [2, 3]"] ;
78 -> 79 ;
80 [label="entropy = 1.0\nsamples = 2\nvalue = [1, 1]"] ;
79 -> 80 ;
81 [label="X[2] <= 36.5\nentropy = 0.918\nsamples = 3\nvalue = [1, 2]"] ;
79 -> 81 ;
82 [label="entropy = 0.0\nsamples = 1\nvalue = [0, 1]"] ;
81 -> 82 ;
83 [label="entropy = 1.0\nsamples = 2\nvalue = [1, 1]"] ;
81 -> 83 ;
84 [label="entropy = 0.0\nsamples = 1\nvalue = [0, 1]"] ;
78 -> 84 ;
85 [label="entropy = 0.0\nsamples = 2\nvalue = [0, 2]"] ;
77 -> 85 ;
86 [label="X[2] <= 15.0\nentropy = 0.722\nsamples = 5\nvalue = [4, 1]"] ;
76 -> 86 ;
87 [label="X[5] <= 28.71\nentropy = 1.0\nsamples = 2\nvalue = [1, 1]"] ;
86 -> 87 ;
88 [label="entropy = 0.0\nsamples = 1\nvalue = [1, 0]"] ;
87 -> 88 ;
89 [label="entropy = 0.0\nsamples = 1\nvalue = [0, 1]"] ;
87 -> 89 ;
90 [label="entropy = 0.0\nsamples = 3\nvalue = [3, 0]"] ;
86 -> 90 ;
91 [label="entropy = 0.0\nsamples = 6\nvalue = [0, 6]"] ;
75 -> 91 ;
92 [label="X[5] <= 379.925\nentropy = 0.946\nsamples = 55\nvalue = [35, 20]"] ;
74 -> 92 ;
93 [label="X[3] <= 0.5\nentropy = 0.924\nsamples = 53\nvalue = [35, 18]"] ;
92 -> 93 ;
94 [label="X[5] <= 37.0\nentropy = 0.691\nsamples = 27\nvalue = [22, 5]"] ;
93 -> 94 ;
95 [label="X[2] <= 42.5\nentropy = 0.985\nsamples = 7\nvalue = [4, 3]"] ;
94 -> 95 ;
96 [label="X[2] <= 14.0\nentropy = 0.971\nsamples = 5\nvalue = [2, 3]"] ;
95 -> 96 ;
97 [label="X[5] <= 35.25\nentropy = 0.918\nsamples = 3\nvalue = [2, 1]"] ;
96 -> 97 ;
98 [label="entropy = 0.0\nsamples = 2\nvalue = [2, 0]"] ;
97 -> 98 ;
99 [label="entropy = 0.0\nsamples = 1\nvalue = [0, 1]"] ;
97 -> 99 ;
100 [label="entropy = 0.0\nsamples = 2\nvalue = [0, 2]"] ;
96 -> 100 ;
101 [label="entropy = 0.0\nsamples = 2\nvalue = [2, 0]"] ;
95 -> 101 ;
102 [label="entropy = 0.469\nsamples = 20\nvalue = [18, 2]"] ;
94 -> 102 ;
103 [label="X[5] <= 115.442\nentropy = 1.0\nsamples = 26\nvalue = [13, 13]"] ;
93 -> 103 ;
104 [label="X[2] <= 49.5\nentropy = 0.988\nsamples = 23\nvalue = [13, 10]"] ;
103 -> 104 ;
105 [label="X[2] <= 22.0\nentropy = 1.0\nsamples = 20\nvalue = [10, 10]"] ;
104 -> 105 ;
106 [label="entropy = 0.0\nsamples = 2\nvalue = [2, 0]"] ;
105 -> 106 ;
107 [label="X[2] <= 27.5\nentropy = 0.991\nsamples = 18\nvalue = [8, 10]"] ;
105 -> 107 ;
108 [label="entropy = 0.0\nsamples = 3\nvalue = [0, 3]"] ;
107 -> 108 ;
109 [label="X[2] <= 46.5\nentropy = 0.997\nsamples = 15\nvalue = [8, 7]"] ;
107 -> 109 ;
110 [label="X[4] <= 0.5\nentropy = 0.946\nsamples = 11\nvalue = [7, 4]"] ;
109 -> 110 ;
111 [label="X[5] <= 52.277\nentropy = 0.881\nsamples = 10\nvalue = [7, 3]"] ;
110 -> 111 ;
112 [label="entropy = 0.0\nsamples = 2\nvalue = [2, 0]"] ;
111 -> 112 ;
113 [label="X[6] <= 0.5\nentropy = 0.954\nsamples = 8\nvalue = [5, 3]"] ;
111 -> 113 ;
114 [label="X[2] <= 33.5\nentropy = 1.0\nsamples = 6\nvalue = [3, 3]"] ;
113 -> 114 ;
115 [label="entropy = 0.0\nsamples = 1\nvalue = [0, 1]"] ;
114 -> 115 ;
116 [label="X[2] <= 37.5\nentropy = 0.971\nsamples = 5\nvalue = [3, 2]"] ;
114 -> 116 ;
117 [label="entropy = 0.0\nsamples = 2\nvalue = [2, 0]"] ;
116 -> 117 ;
118 [label="X[2] <= 43.5\nentropy = 0.918\nsamples = 3\nvalue = [1, 2]"] ;
116 -> 118 ;
119 [label="entropy = 0.0\nsamples = 2\nvalue = [0, 2]"] ;
118 -> 119 ;
120 [label="entropy = 0.0\nsamples = 1\nvalue = [1, 0]"] ;
118 -> 120 ;
121 [label="entropy = 0.0\nsamples = 2\nvalue = [2, 0]"] ;
113 -> 121 ;
122 [label="entropy = 0.0\nsamples = 1\nvalue = [0, 1]"] ;
110 -> 122 ;
123 [label="X[5] <= 99.994\nentropy = 0.811\nsamples = 4\nvalue = [1, 3]"] ;
109 -> 123 ;
124 [label="entropy = 0.0\nsamples = 3\nvalue = [0, 3]"] ;
123 -> 124 ;
125 [label="entropy = 0.0\nsamples = 1\nvalue = [1, 0]"] ;
123 -> 125 ;
126 [label="entropy = 0.0\nsamples = 3\nvalue = [3, 0]"] ;
104 -> 126 ;
127 [label="entropy = 0.0\nsamples = 3\nvalue = [0, 3]"] ;
103 -> 127 ;
128 [label="entropy = 0.0\nsamples = 2\nvalue = [0, 2]"] ;
92 -> 128 ;
129 [label="X[2] <= 75.5\nentropy = 0.567\nsamples = 15\nvalue = [13, 2]"] ;
73 -> 129 ;
130 [label="entropy = 0.371\nsamples = 14\nvalue = [13, 1]"] ;
129 -> 130 ;
131 [label="entropy = 0.0\nsamples = 1\nvalue = [0, 1]"] ;
129 -> 131 ;
132 [label="X[2] <= 13.0\nentropy = 0.585\nsamples = 356\nvalue = [306, 50]"] ;
68 -> 132 ;
133 [label="X[5] <= 8.081\nentropy = 0.774\nsamples = 101\nvalue = [78, 23]"] ;
132 -> 133 ;
134 [label="entropy = 0.318\nsamples = 52\nvalue = [49, 3]"] ;
133 -> 134 ;
135 [label="X[0] <= 2.5\nentropy = 0.976\nsamples = 49\nvalue = [29, 20]"] ;
133 -> 135 ;
136 [label="entropy = 0.0\nsamples = 8\nvalue = [0, 8]"] ;
135 -> 136 ;
137 [label="X[3] <= 2.5\nentropy = 0.872\nsamples = 41\nvalue = [29, 12]"] ;
135 -> 137 ;
138 [label="X[2] <= 0.21\nentropy = 0.995\nsamples = 24\nvalue = [13, 11]"] ;
137 -> 138 ;
139 [label="X[5] <= 8.388\nentropy = 0.852\nsamples = 18\nvalue = [13, 5]"] ;
138 -> 139 ;
140 [label="entropy = 0.0\nsamples = 1\nvalue = [0, 1]"] ;
139 -> 140 ;
141 [label="X[5] <= 14.873\nentropy = 0.787\nsamples = 17\nvalue = [13, 4]"] ;
139 -> 141 ;
142 [label="entropy = 0.0\nsamples = 5\nvalue = [5, 0]"] ;
141 -> 142 ;
143 [label="X[5] <= 15.373\nentropy = 0.918\nsamples = 12\nvalue = [8, 4]"] ;
141 -> 143 ;
144 [label="entropy = 0.0\nsamples = 2\nvalue = [0, 2]"] ;
143 -> 144 ;
145 [label="X[5] <= 21.608\nentropy = 0.722\nsamples = 10\nvalue = [8, 2]"] ;
143 -> 145 ;
146 [label="entropy = 0.0\nsamples = 6\nvalue = [6, 0]"] ;
145 -> 146 ;
147 [label="X[4] <= 1.0\nentropy = 1.0\nsamples = 4\nvalue = [2, 2]"] ;
145 -> 147 ;
148 [label="X[6] <= 1.0\nentropy = 0.918\nsamples = 3\nvalue = [1, 2]"] ;
147 -> 148 ;
149 [label="entropy = 0.0\nsamples = 1\nvalue = [0, 1]"] ;
148 -> 149 ;
150 [label="X[5] <= 23.7\nentropy = 1.0\nsamples = 2\nvalue = [1, 1]"] ;
148 -> 150 ;
151 [label="entropy = 0.0\nsamples = 1\nvalue = [0, 1]"] ;
150 -> 151 ;
152 [label="entropy = 0.0\nsamples = 1\nvalue = [1, 0]"] ;
150 -> 152 ;
153 [label="entropy = 0.0\nsamples = 1\nvalue = [1, 0]"] ;
147 -> 153 ;
154 [label="entropy = 0.0\nsamples = 6\nvalue = [0, 6]"] ;
138 -> 154 ;
155 [label="entropy = 0.323\nsamples = 17\nvalue = [16, 1]"] ;
137 -> 155 ;
156 [label="entropy = 0.487\nsamples = 255\nvalue = [228, 27]"] ;
132 -> 156 ;
}